{
  "metadata": {
    "model_type": "xgboost",
    "n_classes": 5,
    "tier_mapping": {
      "0": "Tier 1 (Low)",
      "1": "Tier 2 (Average)",
      "2": "Tier 3 (Good)",
      "3": "Tier 4 (Excellent)",
      "4": "Tier 5 (Elite)"
    }
  },
  "feature_names": [
    "f1_career_fights",
    "f1_career_win_rate",
    "f1_career_finish_rate",
    "f1_career_ko_rate",
    "f1_career_sub_rate",
    "f1_career_sig_str_per_round",
    "f1_career_sig_str_accuracy",
    "f1_career_td_per_round",
    "f1_career_td_accuracy",
    "f1_career_sub_att_per_round",
    "f1_career_kd_per_round",
    "f1_career_ctrl_per_round",
    "f1_career_avg_rounds",
    "f1_recent_win_streak",
    "f1_recent_loss_streak",
    "f2_career_fights",
    "f2_career_win_rate",
    "f2_career_finish_rate",
    "f2_career_ko_rate",
    "f2_career_sub_rate",
    "f2_career_sig_str_per_round",
    "f2_career_sig_str_accuracy",
    "f2_career_td_per_round",
    "f2_career_td_accuracy",
    "f2_career_sub_att_per_round",
    "f2_career_kd_per_round",
    "f2_career_ctrl_per_round",
    "f2_career_avg_rounds",
    "f2_recent_win_streak",
    "f2_recent_loss_streak",
    "f1_height",
    "f1_reach",
    "f2_height",
    "f2_reach",
    "combined_finish_rate",
    "combined_ko_rate",
    "combined_sig_str_per_round",
    "combined_kd_per_round",
    "experience_diff",
    "reach_diff",
    "height_diff",
    "wc_baseline_finish_rate",
    "is_title_fight",
    "scheduled_rounds"
  ],
  "xgboost_model": {
    "learner": {
      "attributes": {
        "best_iteration": "54",
        "best_score": "1.4263888637224833",
        "scikit_learn": "{\"_estimator_type\": \"classifier\"}"
      },
      "feature_names": [
        "f1_career_fights",
        "f1_career_win_rate",
        "f1_career_finish_rate",
        "f1_career_ko_rate",
        "f1_career_sub_rate",
        "f1_career_sig_str_per_round",
        "f1_career_sig_str_accuracy",
        "f1_career_td_per_round",
        "f1_career_td_accuracy",
        "f1_career_sub_att_per_round",
        "f1_career_kd_per_round",
        "f1_career_ctrl_per_round",
        "f1_career_avg_rounds",
        "f1_recent_win_streak",
        "f1_recent_loss_streak",
        "f2_career_fights",
        "f2_career_win_rate",
        "f2_career_finish_rate",
        "f2_career_ko_rate",
        "f2_career_sub_rate",
        "f2_career_sig_str_per_round",
        "f2_career_sig_str_accuracy",
        "f2_career_td_per_round",
        "f2_career_td_accuracy",
        "f2_career_sub_att_per_round",
        "f2_career_kd_per_round",
        "f2_career_ctrl_per_round",
        "f2_career_avg_rounds",
        "f2_recent_win_streak",
        "f2_recent_loss_streak",
        "f1_height",
        "f1_reach",
        "f2_height",
        "f2_reach",
        "combined_finish_rate",
        "combined_ko_rate",
        "combined_sig_str_per_round",
        "combined_kd_per_round",
        "experience_diff",
        "reach_diff",
        "height_diff",
        "wc_baseline_finish_rate",
        "is_title_fight",
        "scheduled_rounds"
      ],
      "feature_types": [
        "int",
        "float",
        "float",
        "float",
        "float",
        "float",
        "float",
        "float",
        "float",
        "float",
        "float",
        "float",
        "float",
        "int",
        "int",
        "int",
        "float",
        "float",
        "float",
        "float",
        "float",
        "float",
        "float",
        "float",
        "float",
        "float",
        "float",
        "float",
        "int",
        "int",
        "float",
        "float",
        "float",
        "float",
        "float",
        "float",
        "float",
        "float",
        "int",
        "float",
        "float",
        "float",
        "int",
        "int"
      ],
      "gradient_booster": {
        "model": {
          "cats": {
            "enc": [],
            "feature_segments": [],
            "sorted_idx": []
          },
          "gbtree_model_param": {
            "num_parallel_tree": "1",
            "num_trees": "375"
          },
          "iteration_indptr": [
            0,
            5,
            10,
            15,
            20,
            25,
            30,
            35,
            40,
            45,
            50,
            55,
            60,
            65,
            70,
            75,
            80,
            85,
            90,
            95,
            100,
            105,
            110,
            115,
            120,
            125,
            130,
            135,
            140,
            145,
            150,
            155,
            160,
            165,
            170,
            175,
            180,
            185,
            190,
            195,
            200,
            205,
            210,
            215,
            220,
            225,
            230,
            235,
            240,
            245,
            250,
            255,
            260,
            265,
            270,
            275,
            280,
            285,
            290,
            295,
            300,
            305,
            310,
            315,
            320,
            325,
            330,
            335,
            340,
            345,
            350,
            355,
            360,
            365,
            370,
            375
          ],
          "tree_info": [
            0,
            1,
            2,
            3,
            4,
            0,
            1,
            2,
            3,
            4,
            0,
            1,
            2,
            3,
            4,
            0,
            1,
            2,
            3,
            4,
            0,
            1,
            2,
            3,
            4,
            0,
            1,
            2,
            3,
            4,
            0,
            1,
            2,
            3,
            4,
            0,
            1,
            2,
            3,
            4,
            0,
            1,
            2,
            3,
            4,
            0,
            1,
            2,
            3,
            4,
            0,
            1,
            2,
            3,
            4,
            0,
            1,
            2,
            3,
            4,
            0,
            1,
            2,
            3,
            4,
            0,
            1,
            2,
            3,
            4,
            0,
            1,
            2,
            3,
            4,
            0,
            1,
            2,
            3,
            4,
            0,
            1,
            2,
            3,
            4,
            0,
            1,
            2,
            3,
            4,
            0,
            1,
            2,
            3,
            4,
            0,
            1,
            2,
            3,
            4,
            0,
            1,
            2,
            3,
            4,
            0,
            1,
            2,
            3,
            4,
            0,
            1,
            2,
            3,
            4,
            0,
            1,
            2,
            3,
            4,
            0,
            1,
            2,
            3,
            4,
            0,
            1,
            2,
            3,
            4,
            0,
            1,
            2,
            3,
            4,
            0,
            1,
            2,
            3,
            4,
            0,
            1,
            2,
            3,
            4,
            0,
            1,
            2,
            3,
            4,
            0,
            1,
            2,
            3,
            4,
            0,
            1,
            2,
            3,
            4,
            0,
            1,
            2,
            3,
            4,
            0,
            1,
            2,
            3,
            4,
            0,
            1,
            2,
            3,
            4,
            0,
            1,
            2,
            3,
            4,
            0,
            1,
            2,
            3,
            4,
            0,
            1,
            2,
            3,
            4,
            0,
            1,
            2,
            3,
            4,
            0,
            1,
            2,
            3,
            4,
            0,
            1,
            2,
            3,
            4,
            0,
            1,
            2,
            3,
            4,
            0,
            1,
            2,
            3,
            4,
            0,
            1,
            2,
            3,
            4,
            0,
            1,
            2,
            3,
            4,
            0,
            1,
            2,
            3,
            4,
            0,
            1,
            2,
            3,
            4,
            0,
            1,
            2,
            3,
            4,
            0,
            1,
            2,
            3,
            4,
            0,
            1,
            2,
            3,
            4,
            0,
            1,
            2,
            3,
            4,
            0,
            1,
            2,
            3,
            4,
            0,
            1,
            2,
            3,
            4,
            0,
            1,
            2,
            3,
            4,
            0,
            1,
            2,
            3,
            4,
            0,
            1,
            2,
            3,
            4,
            0,
            1,
            2,
            3,
            4,
            0,
            1,
            2,
            3,
            4,
            0,
            1,
            2,
            3,
            4,
            0,
            1,
            2,
            3,
            4,
            0,
            1,
            2,
            3,
            4,
            0,
            1,
            2,
            3,
            4,
            0,
            1,
            2,
            3,
            4,
            0,
            1,
            2,
            3,
            4,
            0,
            1,
            2,
            3,
            4,
            0,
            1,
            2,
            3,
            4,
            0,
            1,
            2,
            3,
            4,
            0,
            1,
            2,
            3,
            4,
            0,
            1,
            2,
            3,
            4,
            0,
            1,
            2,
            3,
            4,
            0,
            1,
            2,
            3,
            4,
            0,
            1,
            2,
            3,
            4,
            0,
            1,
            2,
            3,
            4,
            0,
            1,
            2,
            3,
            4,
            0,
            1,
            2,
            3,
            4
          ],
          "trees": [
            {
              "base_weights": [
                -0.0829628,
                0.27712426,
                -0.20966326,
                0.16105323,
                0.6929157,
                -0.27223688,
                0.03236075,
                0.74381655,
                0.06825971,
                0.9362121,
                0.2329881,
                -0.32226425,
                0.020330632,
                0.09069617,
                -0.39270726,
                0.11604345,
                0.013979638,
                -0.0018534396,
                0.032473013,
                0.12021833,
                0.06216657,
                -0.011395682,
                0.08939629,
                0.047208544,
                -0.033360004,
                0.028993491,
                -0.010481851,
                0.029323945,
                -0.0025535005,
                -0.05459817,
                -0.009930014
              ],
              "categories": [],
              "categories_nodes": [],
              "categories_segments": [],
              "categories_sizes": [],
              "default_left": [
                0,
                0,
                0,
                0,
                0,
                0,
                0,
                0,
                0,
                0,
                0,
                0,
                0,
                0,
                0,
                0,
                0,
                0,
                0,
                0,
                0,
                0,
                0,
                0,
                0,
                0,
                0,
                0,
                0,
                0,
                0
              ],
              "id": 0,
              "left_children": [
                1,
                3,
                5,
                7,
                9,
                11,
                13,
                15,
                17,
                19,
                21,
                23,
                25,
                27,
                29,
                -1,
                -1,
                -1,
                -1,
                -1,
                -1,
                -1,
                -1,
                -1,
                -1,
                -1,
                -1,
                -1,
                -1,
                -1,
                -1
              ],
              "loss_changes": [
                38.408672,
                10.374775,
                9.463001,
                9.209133,
                4.959341,
                7.284748,
                3.1913908,
                5.6158943,
                3.3814514,
                1.6194878,
                4.2716417,
                3.954773,
                2.5106568,
                2.7180026,
                0.5776818,
                0.0,
                0.0,
                0.0,
                0.0,
                0.0,
                0.0,
                0.0,
                0.0,
                0.0,
                0.0,
                0.0,
                0.0,
                0.0,
                0.0,
                0.0,
                0.0
              ],
              "parents": [
                2147483647,
                0,
                0,
                1,
                1,
                2,
                2,
                3,
                3,
                4,
                4,
                5,
                5,
                6,
                6,
                7,
                7,
                8,
                8,
                9,
                9,
                10,
                10,
                11,
                11,
                12,
                12,
                13,
                13,
                14,
                14
              ],
              "right_children": [
                2,
                4,
                6,
                8,
                10,
                12,
                14,
                16,
                18,
                20,
                22,
                24,
                26,
                28,
                30,
                -1,
                -1,
                -1,
                -1,
                -1,
                -1,
                -1,
                -1,
                -1,
                -1,
                -1,
                -1,
                -1,
                -1,
                -1,
                -1
              ],
              "split_conditions": [
                10.782609,
                99.5,
                0.33333334,
                62.0,
                0.07317073,
                0.47058824,
                5.0,
                0.25714287,
                107.066666,
                2.4117646,
                145.25,
                62.0,
                4.0,
                13.5,
                0.4888889,
                0.11604345,
                0.013979638,
                -0.0018534396,
                0.032473013,
                0.12021833,
                0.06216657,
                -0.011395682,
                0.08939629,
                0.047208544,
                -0.033360004,
                0.028993491,
                -0.010481851,
                0.029323945,
                -0.0025535005,
                -0.05459817,
                -0.009930014
              ],
              "split_indices": [
                5,
                26,
                9,
                33,
                10,
                24,
                43,
                24,
                11,
                27,
                26,
                31,
                0,
                5,
                9,
                0,
                0,
                0,
                0,
                0,
                0,
                0,
                0,
                0,
                0,
                0,
                0,
                0,
                0,
                0,
                0
              ],
              "split_type": [
                0,
                0,
                0,
                0,
                0,
                0,
                0,
                0,
                0,
                0,
                0,
                0,
                0,
                0,
                0,
                0,
                0,
                0,
                0,
                0,
                0,
                0,
                0,
                0,
                0,
                0,
                0,
                0,
                0,
                0,
                0
              ],
              "sum_hessian": [
                839.7416,
                218.05246,
                621.6891,
                171.73836,
                46.3141,
                494.20435,
                127.48474,
                22.478025,
                149.26033,
                29.471188,
                16.842909,
                422.24347,
                71.9609,
                112.99891,
                14.485839,
                12.659498,
                9.818526,
                111.92184,
                37.338497,
                14.267302,
                15.203886,
                11.488769,
                5.3541408,
                5.2448726,
                416.9986,
                22.649733,
                49.31117,
                40.959957,
                72.03895,
                8.725844,
                5.759994
              ],
              "tree_param": {
                "num_deleted": "0",
                "num_feature": "44",
                "num_nodes": "31",
                "size_leaf_vector": "1"
              }
            },
            {
              "base_weights": [
                0.16711962,
                0.27592933,
                0.00653553,
                0.31441927,
                -0.25786805,
                0.047579754,
                -0.26346743,
                0.34601697,
                -0.073447846,
                0.018562304,
                -0.3810781,
                -0.19264576,
                0.10200001,
                -0.10615789,
                -0.37744805,
                0.020948535,
                0.042955846,
                0.0075615435,
                -0.046841796,
                -0.04359902,
                -0.008939263,
                1.697518e-05,
                -0.030885903,
                0.037735697,
                0.0049396637,
                -0.026196921,
                0.016367411,
                -0.044388715,
                -0.015515958
              ],
              "categories": [],
              "categories_nodes": [],
              "categories_segments": [],
              "categories_sizes": [],
              "default_left": [
                0,
                0,
                0,
                0,
                0,
                0,
                0,
                0,
                0,
                0,
                0,
                0,
                0,
                0,
                0,
                0,
                0,
                0,
                0,
                0,
                0,
                0,
                0,
                0,
                0,
                0,
                0,
                0,
                0
              ],
              "id": 1,
              "left_children": [
                1,
                3,
                5,
                7,
                9,
                11,
                13,
                15,
                17,
                -1,
                19,
                21,
                23,
                25,
                27,
                -1,
                -1,
                -1,
                -1,
                -1,
                -1,
                -1,
                -1,
                -1,
                -1,
                -1,
                -1,
                -1,
                -1
              ],
              "loss_changes": [
                15.858715,
                11.215374,
                4.076657,
                6.2521553,
                2.1013486,
                4.2096424,
                0.78083444,
                5.1859016,
                2.3526595,
                0.0,
                0.37788725,
                1.3603952,
                3.7462263,
                0.98305637,
                0.2751701,
                0.0,
                0.0,
                0.0,
                0.0,
                0.0,
                0.0,
                0.0,
                0.0,
                0.0,
                0.0,
                0.0,
                0.0,
                0.0,
                0.0
              ],
              "parents": [
                2147483647,
                0,
                0,
                1,
                1,
                2,
                2,
                3,
                3,
                4,
                4,
                5,
                5,
                6,
                6,
                7,
                7,
                8,
                8,
                10,
                10,
                11,
                11,
                12,
                12,
                13,
                13,
                14,
                14
              ],
              "right_children": [
                2,
                4,
                6,
                8,
                10,
                12,
                14,
                16,
                18,
                -1,
                20,
                22,
                24,
                26,
                28,
                -1,
                -1,
                -1,
                -1,
                -1,
                -1,
                -1,
                -1,
                -1,
                -1,
                -1,
                -1,
                -1,
                -1
              ],
              "split_conditions": [
                72.0,
                1.0,
                76.0,
                14.0,
                11.714286,
                19.571428,
                39.555557,
                40.465115,
                0.4860681,
                0.018562304,
                0.3,
                0.0,
                9.959184,
                17.05,
                0.509434,
                0.020948535,
                0.042955846,
                0.0075615435,
                -0.046841796,
                -0.04359902,
                -0.008939263,
                1.697518e-05,
                -0.030885903,
                0.037735697,
                0.0049396637,
                -0.026196921,
                0.016367411,
                -0.044388715,
                -0.015515958
              ],
              "split_indices": [
                32,
                42,
                32,
                15,
                20,
                36,
                11,
                11,
                6,
                0,
                24,
                39,
                20,
                5,
                8,
                0,
                0,
                0,
                0,
                0,
                0,
                0,
                0,
                0,
                0,
                0,
                0,
                0,
                0
              ],
              "split_type": [
                0,
                0,
                0,
                0,
                0,
                0,
                0,
                0,
                0,
                0,
                0,
                0,
                0,
                0,
                0,
                0,
                0,
                0,
                0,
                0,
                0,
                0,
                0,
                0,
                0,
                0,
                0,
                0,
                0
              ],
              "sum_hessian": [
                908.3269,
                540.6491,
                367.6778,
                504.8451,
                35.80402,
                320.19745,
                47.48034,
                467.154,
                37.6911,
                7.4977827,
                28.306236,
                58.331062,
                261.8664,
                21.128584,
                26.351757,
                179.12119,
                288.0328,
                27.767069,
                9.924031,
                23.116758,
                5.1894765,
                21.987879,
                36.343185,
                40.70706,
                221.15932,
                13.64765,
                7.4809337,
                19.174105,
                7.177653
              ],
              "tree_param": {
                "num_deleted": "0",
                "num_feature": "44",
                "num_nodes": "29",
                "size_leaf_vector": "1"
              }
            },
            {
              "base_weights": [
                -0.13183147,
                -0.1795323,
                0.06439344,
                -0.25919703,
                -0.118032515,
                0.29115725,
                -0.030002175,
                -0.19444829,
                -0.3527568,
                -0.02061181,
                -0.18689995,
                0.10005878,
                0.70435405,
                0.051096246,
                -0.31433967,
                -0.03892916,
                -0.0134020895,
                -0.03849187,
                -0.0,
                0.006037589,
                -0.031695142,
                -0.027968962,
                -0.011914219,
                0.0488165,
                -0.0058422755,
                0.023355393,
                0.09280232,
                0.010784921,
                -0.031126661,
                -0.0076026353,
                -0.048688184
              ],
              "categories": [],
              "categories_nodes": [],
              "categories_segments": [],
              "categories_sizes": [],
              "default_left": [
                0,
                0,
                0,
                0,
                0,
                0,
                0,
                0,
                0,
                0,
                0,
                0,
                0,
                0,
                0,
                0,
                0,
                0,
                0,
                0,
                0,
                0,
                0,
                0,
                0,
                0,
                0,
                0,
                0,
                0,
                0
              ],
              "id": 2,
              "left_children": [
                1,
                3,
                5,
                7,
                9,
                11,
                13,
                15,
                17,
                19,
                21,
                23,
                25,
                27,
                29,
                -1,
                -1,
                -1,
                -1,
                -1,
                -1,
                -1,
                -1,
                -1,
                -1,
                -1,
                -1,
                -1,
                -1,
                -1,
                -1
              ],
              "loss_changes": [
                7.8362255,
                3.2248783,
                3.5359666,
                1.641304,
                2.5374446,
                3.6770449,
                2.7191687,
                1.9560742,
                1.3268757,
                3.881828,
                1.3288336,
                2.1922395,
                1.2466125,
                1.8827597,
                0.9829757,
                0.0,
                0.0,
                0.0,
                0.0,
                0.0,
                0.0,
                0.0,
                0.0,
                0.0,
                0.0,
                0.0,
                0.0,
                0.0,
                0.0,
                0.0,
                0.0
              ],
              "parents": [
                2147483647,
                0,
                0,
                1,
                1,
                2,
                2,
                3,
                3,
                4,
                4,
                5,
                5,
                6,
                6,
                7,
                7,
                8,
                8,
                9,
                9,
                10,
                10,
                11,
                11,
                12,
                12,
                13,
                13,
                14,
                14
              ],
              "right_children": [
                2,
                4,
                6,
                8,
                10,
                12,
                14,
                16,
                18,
                20,
                22,
                24,
                26,
                28,
                30,
                -1,
                -1,
                -1,
                -1,
                -1,
                -1,
                -1,
                -1,
                -1,
                -1,
                -1,
                -1,
                -1,
                -1,
                -1,
                -1
              ],
              "split_conditions": [
                76.0,
                12.8,
                30.666666,
                0.46153846,
                43.5,
                19.625,
                0.5652174,
                -1.0,
                75.0,
                10.0,
                3.0,
                0.23089431,
                75.0,
                20.5,
                0.4682081,
                -0.03892916,
                -0.0134020895,
                -0.03849187,
                -0.0,
                0.006037589,
                -0.031695142,
                -0.027968962,
                -0.011914219,
                0.0488165,
                -0.0058422755,
                0.023355393,
                0.09280232,
                0.010784921,
                -0.031126661,
                -0.0076026353,
                -0.048688184
              ],
              "split_indices": [
                33,
                20,
                11,
                23,
                11,
                5,
                23,
                39,
                30,
                15,
                38,
                37,
                31,
                5,
                21,
                0,
                0,
                0,
                0,
                0,
                0,
                0,
                0,
                0,
                0,
                0,
                0,
                0,
                0,
                0,
                0
              ],
              "split_type": [
                0,
                0,
                0,
                0,
                0,
                0,
                0,
                0,
                0,
                0,
                0,
                0,
                0,
                0,
                0,
                0,
                0,
                0,
                0,
                0,
                0,
                0,
                0,
                0,
                0,
                0,
                0,
                0,
                0,
                0,
                0
              ],
              "sum_hessian": [
                833.7299,
                671.16846,
                162.56145,
                290.2927,
                380.8758,
                47.478996,
                115.08245,
                174.0129,
                116.279785,
                158.87733,
                221.99846,
                33.47937,
                13.999626,
                89.907684,
                25.174767,
                39.512104,
                134.5008,
                106.45549,
                9.824299,
                125.13701,
                33.740326,
                91.74974,
                130.24872,
                9.287033,
                24.192337,
                5.3112617,
                8.688364,
                78.57904,
                11.328645,
                11.420748,
                13.754019
              ],
              "tree_param": {
                "num_deleted": "0",
                "num_feature": "44",
                "num_nodes": "31",
                "size_leaf_vector": "1"
              }
            },
            {
              "base_weights": [
                0.3411027,
                0.25399768,
                0.9273779,
                0.07254279,
                0.3384951,
                0.829305,
                1.2906296,
                0.13827577,
                -0.23983559,
                0.26682475,
                0.49310172,
                0.9540432,
                0.57002556,
                0.14719914,
                0.06562721,
                0.003700961,
                0.029630918,
                0.009237322,
                -0.03804536,
                0.008679987,
                0.03367016,
                0.0596855,
                0.024667172,
                0.08384972,
                0.15228775,
                0.021579048,
                0.07999284
              ],
              "categories": [],
              "categories_nodes": [],
              "categories_segments": [],
              "categories_sizes": [],
              "default_left": [
                0,
                0,
                0,
                0,
                0,
                0,
                0,
                0,
                0,
                0,
                0,
                0,
                0,
                0,
                0,
                0,
                0,
                0,
                0,
                0,
                0,
                0,
                0,
                0,
                0,
                0,
                0
              ],
              "id": 3,
              "left_children": [
                1,
                3,
                5,
                7,
                9,
                11,
                13,
                15,
                17,
                19,
                21,
                23,
                25,
                -1,
                -1,
                -1,
                -1,
                -1,
                -1,
                -1,
                -1,
                -1,
                -1,
                -1,
                -1,
                -1,
                -1
              ],
              "loss_changes": [
                49.180145,
                12.905972,
                3.1688385,
                5.5761914,
                6.181343,
                2.5831451,
                1.6452904,
                3.5457125,
                2.26499,
                4.917185,
                4.39629,
                2.8719406,
                2.6316547,
                0.0,
                0.0,
                0.0,
                0.0,
                0.0,
                0.0,
                0.0,
                0.0,
                0.0,
                0.0,
                0.0,
                0.0,
                0.0,
                0.0
              ],
              "parents": [
                2147483647,
                0,
                0,
                1,
                1,
                2,
                2,
                3,
                3,
                4,
                4,
                5,
                5,
                6,
                6,
                7,
                7,
                8,
                8,
                9,
                9,
                10,
                10,
                11,
                11,
                12,
                12
              ],
              "right_children": [
                2,
                4,
                6,
                8,
                10,
                12,
                14,
                16,
                18,
                20,
                22,
                24,
                26,
                -1,
                -1,
                -1,
                -1,
                -1,
                -1,
                -1,
                -1,
                -1,
                -1,
                -1,
                -1,
                -1,
                -1
              ],
              "split_conditions": [
                5.0,
                0.08510638,
                21.25,
                115.25,
                73.0,
                0.6923077,
                2.9375,
                71.0,
                0.05,
                4.0,
                2.4615386,
                0.71428573,
                7.0,
                0.14719914,
                0.06562721,
                0.003700961,
                0.029630918,
                0.009237322,
                -0.03804536,
                0.008679987,
                0.03367016,
                0.0596855,
                0.024667172,
                0.08384972,
                0.15228775,
                0.021579048,
                0.07999284
              ],
              "split_indices": [
                43,
                37,
                5,
                26,
                32,
                7,
                12,
                32,
                9,
                0,
                12,
                8,
                15,
                0,
                0,
                0,
                0,
                0,
                0,
                0,
                0,
                0,
                0,
                0,
                0,
                0,
                0
              ],
              "split_type": [
                0,
                0,
                0,
                0,
                0,
                0,
                0,
                0,
                0,
                0,
                0,
                0,
                0,
                0,
                0,
                0,
                0,
                0,
                0,
                0,
                0,
                0,
                0,
                0,
                0,
                0,
                0
              ],
              "sum_hessian": [
                968.96783,
                845.0235,
                123.94437,
                269.44427,
                575.5792,
                100.39689,
                23.547474,
                223.3275,
                46.116764,
                395.5762,
                180.003,
                65.71594,
                34.680946,
                17.162622,
                6.384851,
                137.24762,
                86.07989,
                13.605602,
                32.51116,
                111.63708,
                283.93912,
                125.38496,
                54.618042,
                56.823395,
                8.89255,
                14.583782,
                20.097164
              ],
              "tree_param": {
                "num_deleted": "0",
                "num_feature": "44",
                "num_nodes": "27",
                "size_leaf_vector": "1"
              }
            },
            {
              "base_weights": [
                -0.42350724,
                -0.4528638,
                -0.22050057,
                -0.4800364,
                -0.28205964,
                0.046405256,
                -0.2670101,
                -0.4970228,
                -0.21837705,
                -0.44823256,
                -0.020935647,
                0.059313126,
                -0.37315953,
                -0.044061653,
                -0.051986635,
                0.0061862185,
                -0.04722482,
                -0.049455684,
                -0.016647985,
                -0.019826187,
                0.06916656,
                -0.04972326,
                0.026586771,
                -0.020246089,
                -0.053115387
              ],
              "categories": [],
              "categories_nodes": [],
              "categories_segments": [],
              "categories_sizes": [],
              "default_left": [
                0,
                0,
                0,
                0,
                0,
                0,
                0,
                0,
                0,
                0,
                0,
                0,
                0,
                0,
                0,
                0,
                0,
                0,
                0,
                0,
                0,
                0,
                0,
                0,
                0
              ],
              "id": 4,
              "left_children": [
                1,
                3,
                5,
                7,
                9,
                -1,
                11,
                13,
                15,
                17,
                19,
                21,
                23,
                -1,
                -1,
                -1,
                -1,
                -1,
                -1,
                -1,
                -1,
                -1,
                -1,
                -1,
                -1
              ],
              "loss_changes": [
                4.4163513,
                2.9005737,
                3.273611,
                2.38266,
                4.064382,
                0.0,
                3.3090925,
                0.3710785,
                2.7233768,
                0.60532093,
                4.9166417,
                2.8335679,
                1.7416296,
                0.0,
                0.0,
                0.0,
                0.0,
                0.0,
                0.0,
                0.0,
                0.0,
                0.0,
                0.0,
                0.0,
                0.0
              ],
              "parents": [
                2147483647,
                0,
                0,
                1,
                1,
                2,
                2,
                3,
                3,
                4,
                4,
                6,
                6,
                7,
                7,
                8,
                8,
                9,
                9,
                10,
                10,
                11,
                11,
                12,
                12
              ],
              "right_children": [
                2,
                4,
                6,
                8,
                10,
                -1,
                12,
                14,
                16,
                18,
                20,
                22,
                24,
                -1,
                -1,
                -1,
                -1,
                -1,
                -1,
                -1,
                -1,
                -1,
                -1,
                -1,
                -1
              ],
              "split_conditions": [
                5.0,
                21.35,
                0.3529412,
                0.6773256,
                17.428572,
                0.046405256,
                0.43090317,
                0.044444446,
                28.933332,
                0.27868852,
                0.20512821,
                0.38335517,
                0.42105263,
                -0.044061653,
                -0.051986635,
                0.0061862185,
                -0.04722482,
                -0.049455684,
                -0.016647985,
                -0.019826187,
                0.06916656,
                -0.04972326,
                0.026586771,
                -0.020246089,
                -0.053115387
              ],
              "split_indices": [
                43,
                5,
                21,
                37,
                20,
                0,
                6,
                9,
                11,
                25,
                9,
                6,
                22,
                0,
                0,
                0,
                0,
                0,
                0,
                0,
                0,
                0,
                0,
                0,
                0
              ],
              "split_type": [
                0,
                0,
                0,
                0,
                0,
                0,
                0,
                0,
                0,
                0,
                0,
                0,
                0,
                0,
                0,
                0,
                0,
                0,
                0,
                0,
                0,
                0,
                0,
                0,
                0
              ],
              "sum_hessian": [
                768.1042,
                669.5569,
                98.54729,
                575.59216,
                93.96468,
                5.5615516,
                92.98573,
                539.30023,
                36.29196,
                56.750523,
                37.214157,
                22.70021,
                70.28552,
                162.56187,
                376.73834,
                17.422411,
                18.869549,
                47.783943,
                8.966583,
                30.48922,
                6.724937,
                5.6324897,
                17.06772,
                35.185326,
                35.1002
              ],
              "tree_param": {
                "num_deleted": "0",
                "num_feature": "44",
                "num_nodes": "25",
                "size_leaf_vector": "1"
              }
            },
            {
              "base_weights": [
                -0.048900004,
                0.15973727,
                -0.22783528,
                0.317571,
                -0.04709761,
                -0.298488,
                -0.009739831,
                0.35285333,
                -0.069374725,
                0.3590263,
                -0.12643917,
                -0.15090835,
                -0.38353893,
                0.13072939,
                -0.2602657,
                0.04962596,
                0.024148528,
                0.030704802,
                -0.041719254,
                0.05712508,
                0.008852707,
                -0.0038558883,
                -0.0407235,
                -0.019869542,
                0.02714905,
                0.014896469,
                -0.040481847,
                0.02664633,
                -0.027608437,
                -0.037176445,
                0.0074930987
              ],
              "categories": [],
              "categories_nodes": [],
              "categories_segments": [],
              "categories_sizes": [],
              "default_left": [
                0,
                0,
                0,
                0,
                0,
                0,
                0,
                0,
                0,
                0,
                0,
                0,
                0,
                0,
                0,
                0,
                0,
                0,
                0,
                0,
                0,
                0,
                0,
                0,
                0,
                0,
                0,
                0,
                0,
                0,
                0
              ],
              "id": 5,
              "left_children": [
                1,
                3,
                5,
                7,
                9,
                11,
                13,
                15,
                17,
                19,
                21,
                23,
                25,
                27,
                29,
                -1,
                -1,
                -1,
                -1,
                -1,
                -1,
                -1,
                -1,
                -1,
                -1,
                -1,
                -1,
                -1,
                -1,
                -1,
                -1
              ],
              "loss_changes": [
                31.497953,
                12.7516365,
                6.965559,
                3.073019,
                5.47099,
                4.1902733,
                4.0068493,
                3.050661,
                2.6377952,
                1.4731126,
                3.4538765,
                2.6177425,
                2.53726,
                4.0764246,
                1.5904644,
                0.0,
                0.0,
                0.0,
                0.0,
                0.0,
                0.0,
                0.0,
                0.0,
                0.0,
                0.0,
                0.0,
                0.0,
                0.0,
                0.0,
                0.0,
                0.0
              ],
              "parents": [
                2147483647,
                0,
                0,
                1,
                1,
                2,
                2,
                3,
                3,
                4,
                4,
                5,
                5,
                6,
                6,
                7,
                7,
                8,
                8,
                9,
                9,
                10,
                10,
                11,
                11,
                12,
                12,
                13,
                13,
                14,
                14
              ],
              "right_children": [
                2,
                4,
                6,
                8,
                10,
                12,
                14,
                16,
                18,
                20,
                22,
                24,
                26,
                28,
                30,
                -1,
                -1,
                -1,
                -1,
                -1,
                -1,
                -1,
                -1,
                -1,
                -1,
                -1,
                -1,
                -1,
                -1,
                -1,
                -1
              ],
              "split_conditions": [
                13.166667,
                0.21052632,
                0.75,
                75.0,
                0.045454547,
                0.027027028,
                19.333334,
                2.125,
                0.25714287,
                0.5769231,
                76.0,
                0.7777778,
                1.4,
                2.8,
                7.0,
                0.04962596,
                0.024148528,
                0.030704802,
                -0.041719254,
                0.05712508,
                0.008852707,
                -0.0038558883,
                -0.0407235,
                -0.019869542,
                0.02714905,
                0.014896469,
                -0.040481847,
                0.02664633,
                -0.027608437,
                -0.037176445,
                0.0074930987
              ],
              "split_indices": [
                20,
                37,
                7,
                30,
                10,
                25,
                20,
                27,
                8,
                7,
                33,
                23,
                12,
                12,
                38,
                0,
                0,
                0,
                0,
                0,
                0,
                0,
                0,
                0,
                0,
                0,
                0,
                0,
                0,
                0,
                0
              ],
              "split_type": [
                0,
                0,
                0,
                0,
                0,
                0,
                0,
                0,
                0,
                0,
                0,
                0,
                0,
                0,
                0,
                0,
                0,
                0,
                0,
                0,
                0,
                0,
                0,
                0,
                0,
                0,
                0,
                0,
                0,
                0,
                0
              ],
              "sum_hessian": [
                841.5551,
                388.3224,
                453.23273,
                220.22153,
                168.10088,
                341.70816,
                111.52457,
                202.1369,
                18.084616,
                26.69129,
                141.40958,
                126.37444,
                215.33372,
                71.50879,
                40.015778,
                86.45575,
                115.68116,
                8.603387,
                9.48123,
                14.126554,
                12.564736,
                108.83964,
                32.56994,
                114.21892,
                12.155528,
                7.8632197,
                207.4705,
                54.061813,
                17.446976,
                30.169521,
                9.846255
              ],
              "tree_param": {
                "num_deleted": "0",
                "num_feature": "44",
                "num_nodes": "31",
                "size_leaf_vector": "1"
              }
            },
            {
              "base_weights": [
                0.16804995,
                0.23214148,
                -0.29325834,
                0.09554969,
                0.35456333,
                0.01922264,
                -0.32404912,
                0.16018216,
                -0.09321794,
                0.4858292,
                0.23215109,
                -0.35467246,
                0.0051013464,
                0.03826682,
                0.010357723,
                0.009942386,
                -0.023088083,
                0.054536846,
                -0.0,
                0.011731706,
                0.032667875,
                -0.021661853,
                -0.041477535
              ],
              "categories": [],
              "categories_nodes": [],
              "categories_segments": [],
              "categories_sizes": [],
              "default_left": [
                0,
                0,
                0,
                0,
                0,
                0,
                0,
                0,
                0,
                0,
                0,
                0,
                0,
                0,
                0,
                0,
                0,
                0,
                0,
                0,
                0,
                0,
                0
              ],
              "id": 6,
              "left_children": [
                1,
                3,
                5,
                7,
                9,
                -1,
                11,
                13,
                15,
                17,
                19,
                21,
                -1,
                -1,
                -1,
                -1,
                -1,
                -1,
                -1,
                -1,
                -1,
                -1,
                -1
              ],
              "loss_changes": [
                27.20154,
                13.410713,
                1.7530899,
                4.6949387,
                6.639164,
                0.0,
                1.2670822,
                3.514895,
                2.633341,
                5.9067535,
                2.327654,
                0.6640034,
                0.0,
                0.0,
                0.0,
                0.0,
                0.0,
                0.0,
                0.0,
                0.0,
                0.0,
                0.0,
                0.0
              ],
              "parents": [
                2147483647,
                0,
                0,
                1,
                1,
                2,
                2,
                3,
                3,
                4,
                4,
                6,
                6,
                7,
                7,
                8,
                8,
                9,
                9,
                10,
                10,
                11,
                11
              ],
              "right_children": [
                2,
                4,
                6,
                8,
                10,
                -1,
                12,
                14,
                16,
                18,
                20,
                22,
                -1,
                -1,
                -1,
                -1,
                -1,
                -1,
                -1,
                -1,
                -1,
                -1,
                -1
              ],
              "split_conditions": [
                5.0,
                2.3,
                9.727273,
                0.34615386,
                70.0,
                0.01922264,
                6.0,
                70.0,
                0.121323526,
                24.75,
                2.6363637,
                7.0,
                0.0051013464,
                0.03826682,
                0.010357723,
                0.009942386,
                -0.023088083,
                0.054536846,
                -0.0,
                0.011731706,
                0.032667875,
                -0.021661853,
                -0.041477535
              ],
              "split_indices": [
                43,
                27,
                5,
                9,
                32,
                0,
                39,
                31,
                37,
                5,
                27,
                29,
                0,
                0,
                0,
                0,
                0,
                0,
                0,
                0,
                0,
                0,
                0
              ],
              "split_type": [
                0,
                0,
                0,
                0,
                0,
                0,
                0,
                0,
                0,
                0,
                0,
                0,
                0,
                0,
                0,
                0,
                0,
                0,
                0,
                0,
                0,
                0,
                0
              ],
              "sum_hessian": [
                916.9334,
                805.7067,
                111.22672,
                382.04193,
                423.66476,
                6.1271996,
                105.099525,
                285.10538,
                96.93654,
                202.61238,
                221.05238,
                97.46281,
                7.636718,
                56.298164,
                228.80722,
                40.213787,
                56.722748,
                180.44095,
                22.171436,
                101.295555,
                119.75683,
                31.462534,
                66.00027
              ],
              "tree_param": {
                "num_deleted": "0",
                "num_feature": "44",
                "num_nodes": "23",
                "size_leaf_vector": "1"
              }
            },
            {
              "base_weights": [
                -0.11925943,
                -0.053907555,
                -0.22230662,
                -0.1025485,
                0.14361522,
                -0.25078046,
                -0.0062927795,
                0.03086123,
                -0.1917325,
                0.21340153,
                -0.23235475,
                -0.37609667,
                -0.20237172,
                0.2577935,
                -0.24165934,
                0.008479659,
                -0.017763294,
                -0.021624861,
                0.016115382,
                0.02574796,
                -0.039769374,
                -0.046730652,
                0.0036621492,
                -0.04273691,
                0.0034025335,
                0.02313334,
                -0.022860546,
                0.046523765,
                -0.010582977,
                -0.038262825,
                0.015073815
              ],
              "categories": [],
              "categories_nodes": [],
              "categories_segments": [],
              "categories_sizes": [],
              "default_left": [
                0,
                0,
                0,
                0,
                0,
                0,
                0,
                0,
                0,
                0,
                0,
                0,
                0,
                0,
                0,
                0,
                0,
                0,
                0,
                0,
                0,
                0,
                0,
                0,
                0,
                0,
                0,
                0,
                0,
                0,
                0
              ],
              "id": 7,
              "left_children": [
                1,
                3,
                5,
                7,
                9,
                11,
                13,
                15,
                17,
                19,
                21,
                23,
                25,
                27,
                29,
                -1,
                -1,
                -1,
                -1,
                -1,
                -1,
                -1,
                -1,
                -1,
                -1,
                -1,
                -1,
                -1,
                -1,
                -1,
                -1
              ],
              "loss_changes": [
                5.5565023,
                4.9144926,
                1.9506178,
                4.9066787,
                2.6941528,
                1.5869904,
                2.4777277,
                1.8601192,
                2.174183,
                2.4000123,
                1.0742073,
                1.6795235,
                2.4120808,
                1.4888538,
                1.2578442,
                0.0,
                0.0,
                0.0,
                0.0,
                0.0,
                0.0,
                0.0,
                0.0,
                0.0,
                0.0,
                0.0,
                0.0,
                0.0,
                0.0,
                0.0,
                0.0
              ],
              "parents": [
                2147483647,
                0,
                0,
                1,
                1,
                2,
                2,
                3,
                3,
                4,
                4,
                5,
                5,
                6,
                6,
                7,
                7,
                8,
                8,
                9,
                9,
                10,
                10,
                11,
                11,
                12,
                12,
                13,
                13,
                14,
                14
              ],
              "right_children": [
                2,
                4,
                6,
                8,
                10,
                12,
                14,
                16,
                18,
                20,
                22,
                24,
                26,
                28,
                30,
                -1,
                -1,
                -1,
                -1,
                -1,
                -1,
                -1,
                -1,
                -1,
                -1,
                -1,
                -1,
                -1,
                -1,
                -1,
                -1
              ],
              "split_conditions": [
                0.46153846,
                76.0,
                75.0,
                43.5,
                108.5,
                22.827587,
                0.13043478,
                71.14286,
                19.0,
                0.5555556,
                74.0,
                0.27868852,
                6.7058825,
                0.125,
                75.111115,
                0.008479659,
                -0.017763294,
                -0.021624861,
                0.016115382,
                0.02574796,
                -0.039769374,
                -0.046730652,
                0.0036621492,
                -0.04273691,
                0.0034025335,
                0.02313334,
                -0.022860546,
                0.046523765,
                -0.010582977,
                -0.038262825,
                0.015073815
              ],
              "split_indices": [
                23,
                33,
                30,
                11,
                11,
                36,
                24,
                26,
                14,
                25,
                30,
                25,
                11,
                9,
                11,
                0,
                0,
                0,
                0,
                0,
                0,
                0,
                0,
                0,
                0,
                0,
                0,
                0,
                0,
                0,
                0
              ],
              "split_type": [
                0,
                0,
                0,
                0,
                0,
                0,
                0,
                0,
                0,
                0,
                0,
                0,
                0,
                0,
                0,
                0,
                0,
                0,
                0,
                0,
                0,
                0,
                0,
                0,
                0,
                0,
                0,
                0,
                0,
                0,
                0
              ],
              "sum_hessian": [
                829.9824,
                509.41086,
                320.57156,
                409.54538,
                99.865456,
                282.68552,
                37.886044,
                163.90047,
                245.64493,
                84.81985,
                15.045606,
                76.30892,
                206.37659,
                17.608631,
                20.277412,
                131.06754,
                32.832943,
                230.3148,
                15.330112,
                79.805786,
                5.014063,
                7.8356037,
                7.2100024,
                68.00845,
                8.300468,
                11.107842,
                195.26875,
                11.209349,
                6.399283,
                15.12389,
                5.153523
              ],
              "tree_param": {
                "num_deleted": "0",
                "num_feature": "44",
                "num_nodes": "31",
                "size_leaf_vector": "1"
              }
            },
            {
              "base_weights": [
                0.3105099,
                0.22434428,
                0.8693303,
                0.117919676,
                0.36566454,
                0.6994097,
                1.03863,
                0.046211272,
                0.30397266,
                0.2962557,
                0.59269965,
                0.006880673,
                0.75759417,
                0.63039285,
                1.128144,
                0.0077234544,
                -0.024068026,
                0.041732393,
                -0.0014885964,
                0.015299797,
                0.042429075,
                0.07142311,
                0.027840838,
                0.03519977,
                0.087778956,
                0.017080659,
                0.08869186,
                0.12723462,
                0.074522704
              ],
              "categories": [],
              "categories_nodes": [],
              "categories_segments": [],
              "categories_sizes": [],
              "default_left": [
                0,
                0,
                0,
                0,
                0,
                0,
                0,
                0,
                0,
                0,
                0,
                0,
                0,
                0,
                0,
                0,
                0,
                0,
                0,
                0,
                0,
                0,
                0,
                0,
                0,
                0,
                0,
                0,
                0
              ],
              "id": 8,
              "left_children": [
                1,
                3,
                5,
                7,
                9,
                11,
                13,
                15,
                17,
                19,
                21,
                -1,
                23,
                25,
                27,
                -1,
                -1,
                -1,
                -1,
                -1,
                -1,
                -1,
                -1,
                -1,
                -1,
                -1,
                -1,
                -1,
                -1
              ],
              "loss_changes": [
                47.53086,
                12.876366,
                2.9032288,
                6.5378847,
                5.558346,
                2.4094925,
                1.4470139,
                3.1879637,
                4.9902134,
                5.1108837,
                2.955433,
                0.0,
                2.6510391,
                1.3878298,
                1.6615906,
                0.0,
                0.0,
                0.0,
                0.0,
                0.0,
                0.0,
                0.0,
                0.0,
                0.0,
                0.0,
                0.0,
                0.0,
                0.0,
                0.0
              ],
              "parents": [
                2147483647,
                0,
                0,
                1,
                1,
                2,
                2,
                3,
                3,
                4,
                4,
                5,
                5,
                6,
                6,
                7,
                7,
                8,
                8,
                9,
                9,
                10,
                10,
                12,
                12,
                13,
                13,
                14,
                14
              ],
              "right_children": [
                2,
                4,
                6,
                8,
                10,
                12,
                14,
                16,
                18,
                20,
                22,
                -1,
                24,
                26,
                28,
                -1,
                -1,
                -1,
                -1,
                -1,
                -1,
                -1,
                -1,
                -1,
                -1,
                -1,
                -1,
                -1,
                -1
              ],
              "split_conditions": [
                5.0,
                0.22580644,
                0.47058824,
                17.447369,
                76.0,
                1.8,
                12.666667,
                0.19111112,
                73.344826,
                0.39583334,
                17.75,
                0.006880673,
                0.3548387,
                0.0,
                2.875,
                0.0077234544,
                -0.024068026,
                0.041732393,
                -0.0014885964,
                0.015299797,
                0.042429075,
                0.07142311,
                0.027840838,
                0.03519977,
                0.087778956,
                0.017080659,
                0.08869186,
                0.12723462,
                0.074522704
              ],
              "split_indices": [
                43,
                37,
                23,
                5,
                33,
                12,
                5,
                37,
                11,
                8,
                5,
                0,
                8,
                39,
                12,
                0,
                0,
                0,
                0,
                0,
                0,
                0,
                0,
                0,
                0,
                0,
                0,
                0,
                0
              ],
              "split_type": [
                0,
                0,
                0,
                0,
                0,
                0,
                0,
                0,
                0,
                0,
                0,
                0,
                0,
                0,
                0,
                0,
                0,
                0,
                0,
                0,
                0,
                0,
                0,
                0,
                0,
                0,
                0,
                0,
                0
              ],
              "sum_hessian": [
                992.44025,
                861.22644,
                131.21379,
                492.71652,
                368.50992,
                68.342514,
                62.87128,
                356.93338,
                135.78314,
                284.33023,
                84.17967,
                6.1026964,
                62.23982,
                12.953808,
                49.917473,
                323.07657,
                33.85682,
                100.17625,
                35.606903,
                135.5925,
                148.73775,
                59.55861,
                24.621063,
                15.316195,
                46.923622,
                5.376697,
                7.5771112,
                34.384666,
                15.532805
              ],
              "tree_param": {
                "num_deleted": "0",
                "num_feature": "44",
                "num_nodes": "29",
                "size_leaf_vector": "1"
              }
            },
            {
              "base_weights": [
                -0.41924694,
                -0.47168648,
                -0.25958288,
                -0.48320484,
                -0.31160557,
                -0.3832463,
                -0.1042675,
                -0.4878431,
                -0.021394208,
                0.11097776,
                -0.46230853,
                -0.4491115,
                -0.0154429935,
                -0.0,
                -0.46194512,
                -0.040613387,
                -0.050484266,
                -0.018740108,
                0.041809738,
                -0.053216584,
                -0.014694752,
                -0.012689928,
                -0.04873198,
                -0.048307523,
                0.021572601,
                -0.008225981,
                0.07228983,
                -0.05485118,
                -0.01749586
              ],
              "categories": [],
              "categories_nodes": [],
              "categories_segments": [],
              "categories_sizes": [],
              "default_left": [
                0,
                0,
                0,
                0,
                0,
                0,
                0,
                0,
                0,
                0,
                0,
                0,
                0,
                0,
                0,
                0,
                0,
                0,
                0,
                0,
                0,
                0,
                0,
                0,
                0,
                0,
                0,
                0,
                0
              ],
              "id": 9,
              "left_children": [
                1,
                3,
                5,
                7,
                9,
                11,
                13,
                15,
                -1,
                17,
                19,
                21,
                23,
                25,
                27,
                -1,
                -1,
                -1,
                -1,
                -1,
                -1,
                -1,
                -1,
                -1,
                -1,
                -1,
                -1,
                -1,
                -1
              ],
              "loss_changes": [
                6.0448914,
                0.8013458,
                3.5023556,
                0.47415924,
                2.6940207,
                2.450509,
                3.1286747,
                0.41155243,
                0.0,
                1.1456825,
                0.5269089,
                0.9526615,
                1.964808,
                3.984972,
                0.30302,
                0.0,
                0.0,
                0.0,
                0.0,
                0.0,
                0.0,
                0.0,
                0.0,
                0.0,
                0.0,
                0.0,
                0.0,
                0.0,
                0.0
              ],
              "parents": [
                2147483647,
                0,
                0,
                1,
                1,
                2,
                2,
                3,
                3,
                4,
                4,
                5,
                5,
                6,
                6,
                7,
                7,
                9,
                9,
                10,
                10,
                11,
                11,
                12,
                12,
                13,
                13,
                14,
                14
              ],
              "right_children": [
                2,
                4,
                6,
                8,
                10,
                12,
                14,
                16,
                -1,
                18,
                20,
                22,
                24,
                26,
                28,
                -1,
                -1,
                -1,
                -1,
                -1,
                -1,
                -1,
                -1,
                -1,
                -1,
                -1,
                -1,
                -1,
                -1
              ],
              "split_conditions": [
                35.96104,
                0.6666667,
                0.25757575,
                1.9090909,
                72.0,
                0.8717949,
                76.0,
                68.0,
                -0.021394208,
                27.043478,
                8.0,
                1.0,
                17.428572,
                13.0,
                9.0,
                -0.040613387,
                -0.050484266,
                -0.018740108,
                0.041809738,
                -0.053216584,
                -0.014694752,
                -0.012689928,
                -0.04873198,
                -0.048307523,
                0.021572601,
                -0.008225981,
                0.07228983,
                -0.05485118,
                -0.01749586
              ],
              "split_indices": [
                36,
                37,
                37,
                7,
                31,
                7,
                33,
                32,
                0,
                36,
                38,
                38,
                20,
                38,
                29,
                0,
                0,
                0,
                0,
                0,
                0,
                0,
                0,
                0,
                0,
                0,
                0,
                0,
                0
              ],
              "split_type": [
                0,
                0,
                0,
                0,
                0,
                0,
                0,
                0,
                0,
                0,
                0,
                0,
                0,
                0,
                0,
                0,
                0,
                0,
                0,
                0,
                0,
                0,
                0,
                0,
                0,
                0,
                0,
                0,
                0
              ],
              "sum_hessian": [
                744.33356,
                558.3654,
                185.96817,
                518.4201,
                39.945282,
                102.35826,
                83.60991,
                508.47806,
                9.942052,
                10.3955,
                29.549782,
                86.3941,
                15.964162,
                65.637764,
                17.972147,
                92.86948,
                415.60858,
                5.305349,
                5.0901513,
                23.368681,
                6.1811,
                9.89421,
                76.499886,
                5.06369,
                10.900472,
                59.799484,
                5.83828,
                12.839507,
                5.1326394
              ],
              "tree_param": {
                "num_deleted": "0",
                "num_feature": "44",
                "num_nodes": "29",
                "size_leaf_vector": "1"
              }
            },
            {
              "base_weights": [
                -0.054031894,
                0.16590798,
                -0.22763206,
                0.43072242,
                0.05408922,
                0.102588,
                -0.29495925,
                0.6419331,
                0.271792,
                0.24239133,
                -0.08508667,
                -0.08728341,
                0.25410098,
                -0.35547143,
                -0.06878156,
                0.017145965,
                0.07689375,
                0.017767726,
                0.08652577,
                -0.0,
                0.046678495,
                0.027757505,
                -0.012423079,
                -0.022468466,
                0.02779992,
                -0.027361983,
                0.04015381,
                -0.021255312,
                -0.042928483,
                0.050377507,
                -0.011372865
              ],
              "categories": [],
              "categories_nodes": [],
              "categories_segments": [],
              "categories_sizes": [],
              "default_left": [
                0,
                0,
                0,
                0,
                0,
                0,
                0,
                0,
                0,
                0,
                0,
                0,
                0,
                0,
                0,
                0,
                0,
                0,
                0,
                0,
                0,
                0,
                0,
                0,
                0,
                0,
                0,
                0,
                0,
                0,
                0
              ],
              "id": 10,
              "left_children": [
                1,
                3,
                5,
                7,
                9,
                11,
                13,
                15,
                17,
                19,
                21,
                23,
                25,
                27,
                29,
                -1,
                -1,
                -1,
                -1,
                -1,
                -1,
                -1,
                -1,
                -1,
                -1,
                -1,
                -1,
                -1,
                -1,
                -1,
                -1
              ],
              "loss_changes": [
                31.739458,
                10.78112,
                10.379129,
                3.3730755,
                6.826828,
                2.3165812,
                5.2220993,
                2.4953709,
                3.3089538,
                6.0436716,
                2.140379,
                1.8434544,
                3.591585,
                3.0545235,
                2.1582553,
                0.0,
                0.0,
                0.0,
                0.0,
                0.0,
                0.0,
                0.0,
                0.0,
                0.0,
                0.0,
                0.0,
                0.0,
                0.0,
                0.0,
                0.0,
                0.0
              ],
              "parents": [
                2147483647,
                0,
                0,
                1,
                1,
                2,
                2,
                3,
                3,
                4,
                4,
                5,
                5,
                6,
                6,
                7,
                7,
                8,
                8,
                9,
                9,
                10,
                10,
                11,
                11,
                12,
                12,
                13,
                13,
                14,
                14
              ],
              "right_children": [
                2,
                4,
                6,
                8,
                10,
                12,
                14,
                16,
                18,
                20,
                22,
                24,
                26,
                28,
                30,
                -1,
                -1,
                -1,
                -1,
                -1,
                -1,
                -1,
                -1,
                -1,
                -1,
                -1,
                -1,
                -1,
                -1,
                -1,
                -1
              ],
              "split_conditions": [
                13.416667,
                9.5,
                9.090909,
                8.56,
                4.0,
                0.10526316,
                86.375,
                1.25,
                0.56666666,
                61.5625,
                67.0,
                76.0,
                1.875,
                0.1590909,
                65.0,
                0.017145965,
                0.07689375,
                0.017767726,
                0.08652577,
                -0.0,
                0.046678495,
                0.027757505,
                -0.012423079,
                -0.022468466,
                0.02779992,
                -0.027361983,
                0.04015381,
                -0.021255312,
                -0.042928483,
                0.050377507,
                -0.011372865
              ],
              "split_indices": [
                5,
                20,
                20,
                5,
                15,
                24,
                26,
                12,
                21,
                11,
                32,
                31,
                12,
                37,
                31,
                0,
                0,
                0,
                0,
                0,
                0,
                0,
                0,
                0,
                0,
                0,
                0,
                0,
                0,
                0,
                0
              ],
              "split_type": [
                0,
                0,
                0,
                0,
                0,
                0,
                0,
                0,
                0,
                0,
                0,
                0,
                0,
                0,
                0,
                0,
                0,
                0,
                0,
                0,
                0,
                0,
                0,
                0,
                0,
                0,
                0,
                0,
                0,
                0,
                0
              ],
              "sum_hessian": [
                829.12555,
                365.51306,
                463.6125,
                107.40507,
                258.108,
                78.17553,
                385.43695,
                44.542286,
                62.86278,
                109.684296,
                148.42369,
                34.59103,
                43.5845,
                303.28223,
                82.15474,
                10.135155,
                34.40713,
                55.52521,
                7.337573,
                53.100784,
                56.583515,
                13.617234,
                134.80646,
                25.614708,
                8.976323,
                9.182724,
                34.401775,
                105.07299,
                198.20924,
                5.07493,
                77.07981
              ],
              "tree_param": {
                "num_deleted": "0",
                "num_feature": "44",
                "num_nodes": "31",
                "size_leaf_vector": "1"
              }
            },
            {
              "base_weights": [
                0.16524486,
                0.22493172,
                -0.27673855,
                0.38676023,
                0.12301066,
                -0.10557627,
                -0.39276367,
                0.1100588,
                0.43933684,
                0.1817072,
                -0.09592917,
                0.16742499,
                -0.25520897,
                -0.4425195,
                0.012395373,
                0.026537076,
                -0.016082233,
                0.0049189525,
                0.048880782,
                -0.018514082,
                0.02124624,
                -0.017535605,
                0.036343005,
                -0.012744309,
                0.03902258,
                -0.049973406,
                -0.0050503947,
                -0.048693888,
                -0.021958748
              ],
              "categories": [],
              "categories_nodes": [],
              "categories_segments": [],
              "categories_sizes": [],
              "default_left": [
                0,
                0,
                0,
                0,
                0,
                0,
                0,
                0,
                0,
                0,
                0,
                0,
                0,
                0,
                0,
                0,
                0,
                0,
                0,
                0,
                0,
                0,
                0,
                0,
                0,
                0,
                0,
                0,
                0
              ],
              "id": 11,
              "left_children": [
                1,
                3,
                5,
                7,
                9,
                11,
                13,
                15,
                17,
                19,
                21,
                23,
                25,
                27,
                -1,
                -1,
                -1,
                -1,
                -1,
                -1,
                -1,
                -1,
                -1,
                -1,
                -1,
                -1,
                -1,
                -1,
                -1
              ],
              "loss_changes": [
                24.568686,
                13.415699,
                2.1090155,
                4.490673,
                6.51034,
                1.9501307,
                1.7660189,
                2.2433186,
                5.031521,
                4.5393534,
                3.9477596,
                1.1812079,
                1.4542063,
                0.41633606,
                0.0,
                0.0,
                0.0,
                0.0,
                0.0,
                0.0,
                0.0,
                0.0,
                0.0,
                0.0,
                0.0,
                0.0,
                0.0,
                0.0,
                0.0
              ],
              "parents": [
                2147483647,
                0,
                0,
                1,
                1,
                2,
                2,
                3,
                3,
                4,
                4,
                5,
                5,
                6,
                6,
                7,
                7,
                8,
                8,
                9,
                9,
                10,
                10,
                11,
                11,
                12,
                12,
                13,
                13
              ],
              "right_children": [
                2,
                4,
                6,
                8,
                10,
                12,
                14,
                16,
                18,
                20,
                22,
                24,
                26,
                28,
                -1,
                -1,
                -1,
                -1,
                -1,
                -1,
                -1,
                -1,
                -1,
                -1,
                -1,
                -1,
                -1,
                -1,
                -1
              ],
              "split_conditions": [
                5.0,
                70.0,
                15.2,
                19.961538,
                0.53539824,
                71.0,
                111.0,
                87.933334,
                12.944445,
                69.0,
                20.310345,
                0.125,
                14.5,
                0.53339005,
                0.012395373,
                0.026537076,
                -0.016082233,
                0.0049189525,
                0.048880782,
                -0.018514082,
                0.02124624,
                -0.017535605,
                0.036343005,
                -0.012744309,
                0.03902258,
                -0.049973406,
                -0.0050503947,
                -0.048693888,
                -0.021958748
              ],
              "split_indices": [
                43,
                32,
                20,
                36,
                21,
                30,
                26,
                11,
                11,
                33,
                5,
                9,
                5,
                21,
                0,
                0,
                0,
                0,
                0,
                0,
                0,
                0,
                0,
                0,
                0,
                0,
                0,
                0,
                0
              ],
              "split_type": [
                0,
                0,
                0,
                0,
                0,
                0,
                0,
                0,
                0,
                0,
                0,
                0,
                0,
                0,
                0,
                0,
                0,
                0,
                0,
                0,
                0,
                0,
                0,
                0,
                0,
                0,
                0,
                0,
                0
              ],
              "sum_hessian": [
                928.15314,
                818.35693,
                109.796196,
                314.77954,
                503.57742,
                45.47804,
                64.31815,
                51.05919,
                263.72034,
                397.6078,
                105.96964,
                15.822697,
                29.65534,
                58.976322,
                5.3418303,
                32.699924,
                18.359266,
                30.128786,
                233.59155,
                30.11575,
                367.49203,
                91.06051,
                14.909133,
                6.801002,
                9.021695,
                12.633989,
                17.02135,
                47.816113,
                11.160212
              ],
              "tree_param": {
                "num_deleted": "0",
                "num_feature": "44",
                "num_nodes": "29",
                "size_leaf_vector": "1"
              }
            },
            {
              "base_weights": [
                -0.09842656,
                -0.016422322,
                -0.17007062,
                -0.08014194,
                0.08052307,
                -0.07384462,
                -0.24373133,
                -0.12242902,
                0.08513448,
                -0.053690705,
                0.26198205,
                0.028659867,
                -0.13583064,
                -0.08752608,
                -0.3282871,
                -0.01731558,
                0.010662016,
                0.03433926,
                -0.008368812,
                -0.028670454,
                0.008926733,
                0.03678837,
                -0.011330235,
                -0.009040307,
                0.03980169,
                0.0070565725,
                -0.021278976,
                -0.025975138,
                0.015795061,
                -0.036777165,
                -0.016085902
              ],
              "categories": [],
              "categories_nodes": [],
              "categories_segments": [],
              "categories_sizes": [],
              "default_left": [
                0,
                0,
                0,
                0,
                0,
                0,
                0,
                0,
